{"tinybrain":1,"topology":[6,10,3],"activations":["tanh","tanh"],"weights":[[-0.728459894531,-0.001578722616,-0.205534298907,-0.896714634214,0.687891859416,-0.772054136625,0.174770994659,0.945524986808,-0.752134331387,-0.276310362516,-0.450973869046,-0.959632705878,-0.430345451194,0.471682300918,0.190427268478,-0.340467608972,0.986734373489,-0.721320272107,0.738015865785,-0.451989542438,-0.162736822461,-0.276535177266,0.652109429078,-0.025748964877,-0.995450935697,-0.76857183956,0.223804463457,-0.430903173718,-0.127098545957,0.826088112698,-0.95162961071,0.733175686436,-0.876440032328,-0.550220484636,-0.996594927272,-0.633734351785,-0.990895004007,0.540032679746,0.02258626978,0.680553845912,-0.985303958871,0.288141145971,0.861257153499,-0.641664109957,-0.781343905712,0.559001629035,-0.432364829552,0.642620021311,0.002055702266,-0.769195902985,0.162137792987,0.553405269772,-0.574222813162,-0.30941414894,0.000737061259,0.865967402917,-0.59771614503,0.256817838762,-0.249838857562,0.028506614747],[0.44473512538,0.272335305471,-0.102469603113,0.070028225458,0.563828646934,0.572616130846,0.254114586513,0.365205550271,0.837117117754,0.480391092356,0.958419139478,-0.9224477233,0.949107454135,0.365918534513,-0.746420542591,-0.28045467291,-0.837822045124,-0.507940183165,-0.780581534738,0.548736662394,0.46094603681,0.606651732515,-0.314219772496,0.130407586289,-0.047197735425,-0.281886686237,-0.697572449081,0.246575610361,0.291772278627,0.567343747042]],"biases":[[0.092470403338,0.020084546423,-0.498859633458,-0.453366663052,-0.202043668927,0.62762961333,0.309065072475,0.170977015966,-0.70851395545,-0.96392358279],[-1.132389386991,-0.260290365322,0.73198066956]],"vocab":[],"labels":[],"meta":{"trained_by":"evolve","seed":42,"loss":-78.395,"epochs":2}}