{"tinybrain":1,"topology":[13,16,4],"activations":["tanh","tanh"],"weights":[[-1.907710488414,0.487018666165,-0.323547907545,-0.016544984124,-0.321854401993,0.201405394819,-0.013717677522,0.078245250403,0.076315116896,-0.490945189501,0.231435284594,-0.141693825803,-0.158724254538,0.170450397887,0.11349695637,-0.202953497457,-0.044094106357,0.294501891836,0.037387463512,0.065152820075,-0.565474397435,-0.052753518083,0.307583122892,-0.015695378376,0.448802595152,0.025281439626,0.612226642978,-0.11715145166,-0.401393477271,-0.101596613014,-0.075409701829,0.085929288506,0.156775571024,0.046588336875,-0.251498384176,-0.226905653034,0.168105396662,-0.29698285269,0.157770031722,0.353745194183,-0.001654797861,-0.341420809166,0.10246390739,0.408651350812,-0.353502494797,0.03824249218,0.143092498092,-0.18939545658,-0.226596167121,-0.168239883382,-0.267879264316,0.012711523778,-0.707799437542,0.182309560875,-0.222790682693,-0.308120823443,0.090021968581,0.213447936978,-0.084142830359,0.163739411869,-0.215245384989,0.028222994701,-0.059011010476,-0.163864459931,-0.057323614077,0.112402916806,-0.041201477662,-0.099536654821,0.142543863283,-0.321705980423,-0.110794796101,0.014199432268,0.371627843532,0.334511600254,0.182617692896,0.135323709587,-0.131383627209,-0.121047843389,-0.777381096089,0.364148311941,0.217982138874,0.063207692375,0.084706642135,-0.072200675039,-0.007904617778,-0.082179211619,0.223946279032,-0.030049549641,-0.408574968218,-0.266625010615,0.11909053386,0.602878564192,0.017910768618,-0.300271470623,0.183394312272,0.110958281178,0.045289552465,-0.272188937054,-0.045517044785,0.321821598541,-0.383128265368,0.074876193296,-0.052266138786,-0.268447635575,-0.379419150239,0.593446051152,0.057272069143,0.354802317634,-0.073399086393,-0.064582655218,0.3578539879,-0.25262746926,0.12661810634,-0.049351331794,-0.228294591322,-0.240805048055,-0.272274822611,0.288040557451,0.139652693582,0.474978483391,0.296813262927,-0.150369266847,0.004888300053,-0.557305297019,-0.135404425329,-0.199546674425,-0.282056571498,-0.347423226684,-0.087886749747,0.060018369305,1.057731767441,0.234804477114,0.181807042745,-0.029688161406,0.237601664731,0.019186612159,-0.232689089554,-0.229202064499,0.067586028105,-0.066872505057,-0.016203095258,-0.101675878605,0.008122369601,-0.176944760957,0.165106085806,-0.042796266099,-0.028948324413,0.415838902174,-0.153966748878,-0.266504032377,0.08110461109,-0.166494358334,-0.075028192362,0.274837757519,0.079533690972,0.052194176404,0.638401289518,0.170220786929,0.189944274922,0.212333627027,0.164513219262,-0.36752869461,-0.120509025421,0.02062873358,-0.053995440514,-0.157481781769,0.123652469051,-0.200673777743,0.345589519185,-0.620767899462,-0.895517416083,-0.077535351977,-0.037177199638,-0.240128158936,-0.178264155652,-0.021856167976,0.124037556039,0.434274025807,-0.151727527806,0.198521948451,0.215872055454,0.039637646243,0.247095057891,0.48141534227,0.032357068849,-0.229093612633,-0.090006597572,-0.230783421138,0.129026923454,0.021938951989,-0.100413806871,0.067314688781,0.125872855723,-0.264326371575,-0.129079199063,-0.275977501662,0.723596005326,0.214645825653,-0.407652711409,-0.194698948265,-0.190190361346,-0.155425044476,-0.189493789845,0.248135850455,0.200311269479,-0.167350587545,0.378895882153,-0.30351052305],[0.03345947018,0.15603920265,-0.078298725646,0.371936152083,-0.087467495037,0.067637059154,-0.155045306178,-0.024335184934,0.066987919467,0.15182372032,-0.043406021894,-0.014759398234,0.059669615843,-0.281121054176,-0.008821065564,-0.222610252403,1.177799342152,-0.621114642044,-0.368160640836,-0.413027737573,0.043347157343,-0.038380747778,-1.102481038475,-0.037894653116,-0.19952832482,0.110501838394,-0.920417686986,-0.162472907798,-0.099444865966,0.698460895275,0.0024536221,0.18269501236,0.117689950489,0.268421910776,-0.128325609505,0.501599511036,0.11818092439,-0.209240229837,-0.205951105051,0.940141768863,0.393931394492,0.239586015124,0.06755439839,-0.68154210005,0.069269931998,0.215027217297,0.156063043219,-0.551414694899,0.201483276475,0.284032373926,-0.027147750607,-0.160508811564,-0.037539207304,0.205236655047,-0.011021603115,-0.232459192628,-0.044548783122,-0.106584834295,-0.092095158959,0.165445354465,0.123380032009,0.175998644447,0.22623568078,0.175548149334]],"biases":[[0.548787930213,0.196048918304,-0.43683282583,-0.119902673607,-0.252969902528,-0.019916956444,-0.277340353734,0.045972218367,-0.138685823689,-0.068732836479,-0.442997576295,-0.183988568807,0.116232405152,-1.357188118405,-0.272780867006,0.123231988177],[0.456381701693,0.954102093223,0.086875397313,0.084844526768]],"vocab":[],"labels":[],"meta":{"trained_by":"evolve","seed":42,"loss":-3.16498,"epochs":900}}