{"tinybrain":1,"topology":[13,16,4],"activations":["tanh","tanh"],"weights":[[-0.271966857338,-0.006778473149,-0.326002016463,0.025340086838,0.229270431218,0.142024583492,0.530217316658,-0.372393496086,0.492783984291,-0.492933830149,0.11528402814,-0.018924768128,0.326306887437,0.425549810034,0.508503037806,-0.013347092741,-0.231052444622,0.372997782439,0.076062969275,-0.374808320457,-0.431094686299,-0.155137320999,0.196739995565,0.040422668146,0.239678122172,-0.019335912312,0.578565548559,-0.123276172324,-0.146987757288,0.030973423759,-0.432291631054,-0.270929123156,0.316130927077,-0.542826085237,-0.200886983336,0.092541679424,-0.055436939339,0.223872029421,0.243012117518,-0.008815340631,0.116735228854,-0.201814739875,0.361009870118,0.197711487664,0.013993296274,-0.107470338463,-0.220533436785,-0.381948375272,0.540464425188,-0.064469918323,0.150725336441,-0.179780802554,0.432391085652,-0.120423993715,-0.488610338721,-0.12466329792,0.353381256658,0.150055994013,-0.29283720302,0.301116871725,-0.062708976452,0.296597548498,-0.146820534542,-0.25647466684,-0.336982268943,-0.345781646186,-0.002170318374,-0.116259653514,0.0591524564,0.301074013458,-0.179318524386,0.261726047204,-0.074670052584,0.058418427399,-0.008588876095,-0.09533512282,0.012581408868,0.140518965993,-0.508447917131,0.160690797273,-0.009693704201,0.189465454481,-0.115515626083,0.404182883808,-0.258187022845,-0.202693374534,-0.004149961722,0.245810330225,-0.382755805248,-0.069192605627,-0.038759342111,1.592594158009,-0.089266849238,-0.030777789284,0.014697740404,0.119230875854,-0.218389627155,-0.357160446848,0.351212792762,0.135725750194,0.276775194299,0.002729515617,-0.405062277634,0.354112403788,0.33548695364,0.16731181149,-0.304104577686,0.036102416992,-0.257904058171,-0.021072176871,-0.320304987619,-0.207551121862,-0.040949910248,0.301634142029,-0.148902549047,0.162417042717,-0.175198157188,-0.570711597182,0.546009396744,0.101494530675,0.123815222342,0.128125127621,0.181806546956,0.287966712079,0.035452822911,-0.37111042405,-0.286941545769,0.127761599262,-0.197094434781,-0.268319000159,0.359522642579,-0.01048770848,0.409632423472,-0.355033887884,-0.069251251131,-0.173877865625,0.050067570387,0.610356355999,-0.037378918647,-0.0824419809,0.243397040304,-0.090021147137,-0.307774237047,0.483597953769,0.588616415661,0.031946002718,-0.255766327332,0.053192716245,0.024729424652,-0.166374360011,0.131237454696,-0.42433811001,-0.378064942598,-0.40510570964,-0.055278603542,-0.218348917191,-0.212896335584,0.316448766508,-0.235364932331,0.103017576537,0.066810924154,-0.24120091445,-0.153557667749,-0.072240980613,-0.282354342423,-0.428427731253,0.011735423447,-0.247286667318,-0.209400815278,-0.211715972662,0.010491678463,0.083630605837,0.117456811069,0.454109572255,-0.147220062942,0.548629349188,-0.035811839797,0.364784800592,-0.002398858395,-0.272441045149,0.281528482303,-0.046073259706,0.072632487896,0.652275906888,-0.151633198969,0.081423659203,0.079542581498,0.109043340299,-0.106439002341,0.129420503896,-0.359076104195,0.07984059098,0.264033929563,-0.489922284494,0.089969550653,0.055016892005,0.214201539257,0.098908554676,-0.344984136421,-0.221741063719,-0.123895044265,0.057429881729,-0.238034794957,-0.04113943414,-0.262071107784,-0.074627544789,0.018721443374,0.310799804879],[0.090348300455,0.119223765265,-0.049772477676,0.508057814855,-0.304521093807,-0.139639814937,0.029965638688,-0.352247364007,0.07881001803,-0.447784059135,-0.030245576922,0.190236537753,-0.09066030738,0.133599871645,-0.044967009296,-0.483552623196,0.181740985876,-0.142439746763,0.163292791429,-0.202862235832,0.088847156117,-0.412383941073,-0.519515497462,0.636889190606,-0.355989239897,-0.622203659778,0.107857781405,-0.165778272777,-0.332529561354,-0.052997146984,0.105572941812,0.043916940178,0.470472080841,0.49637538539,-0.579607101775,-0.179504738546,0.285985177928,0.243208759638,0.013459978415,0.06192097006,0.25479865034,0.547731953148,0.180194261733,-0.01059765792,0.082656515485,0.103404228654,-0.226033778649,0.288735755845,0.56246518141,-0.022978062826,-0.649868105534,-0.447263011074,-0.809726902483,-0.136833515736,0.044472728056,0.128690192582,0.370374868325,-0.261253732548,0.103170453012,0.29212650188,-0.040556937878,-0.061617322389,-0.136683160471,0.001557063579]],"biases":[[0.558609090033,0.251344024321,-0.010940618511,0.104631152345,-0.377177278131,-0.361562225776,-0.010383539037,-1.757092317428,0.068419080843,-0.221330424677,0.025858265828,-0.063255574089,-0.028936135029,0.072197772877,-0.176389842926,0.145275557756],[0.207627151486,2.002935821298,0.344297447711,-0.255366623761]],"vocab":[],"labels":[],"meta":{"trained_by":"evolve","seed":42,"loss":-3.1688,"epochs":900}}