{"tinybrain":1,"topology":[13,16,4],"activations":["tanh","tanh"],"weights":[[-0.684353443274,0.391744265608,-0.114862021392,0.267581938611,-0.675459572522,0.598762907273,1.635818243882,0.725718030578,-0.368183446754,0.301804647083,-1.00615794305,0.255307512197,-0.719322864953,-1.249818214518,-0.290311720078,-0.659042939571,-0.015883743677,-0.28527662609,-0.506259334975,0.02558620564,0.397141367661,2.33038411519,-0.594083526355,0.240416235309,-1.328954267655,-0.574285159807,-0.583717381947,0.406459422506,0.66881226323,0.984994419843,0.45235412263,-1.264950912383,1.229231052766,-0.101597370534,-0.22148587239,0.764972409683,-0.87937596919,-1.405473964291,0.419758569552,-0.287253932323,0.23566164525,0.545575975043,1.936943635781,-1.146879611419,-0.361009752453,0.747698523359,-0.211378094559,0.368377842833,0.617241789036,0.833416948204,0.088516677678,-0.548171008727,0.284646289276,0.398061206657,-1.194448736401,1.215872797098,-0.432165502679,0.32696404612,-1.027635893797,-0.907928427452,1.229434520486,-1.082757922673,0.155751505287,0.434643772167,1.185464614716,-0.592627341669,-1.017814471395,0.739051143704,1.838526352699,0.0407562989,1.743443441365,-0.404686837925,0.597888038679,0.318441539499,-0.344589850001,-0.881855212656,-1.42661733908,-0.743176763758,1.572328600368,1.711121716309,-0.757613787873,-1.344505386029,0.138204947271,1.363507771848,-0.401272458491,1.3562782347,0.564860836959,0.90076264157,1.369437023983,1.817643235818,0.001780262497,1.141397376052,0.642247401943,0.26335722956,0.267327312039,-0.853448259948,1.500846549729,-1.521887219195,0.82200670383,-0.889449083009,0.93363701754,1.13088110915,-0.372859630255,0.455249670639,0.765151264037,0.087265026889,0.806122630372,-0.362470101455,-0.361633246467,0.383309473928,-1.23971724242,-2.184064351015,2.359983593859,-0.536004001804,0.720301540066,0.817997632091,1.135260886203,1.387713535683,1.051805673191,1.423935609322,-0.453454925238,-0.97698275986,0.47864056373,-0.070009133532,-1.280382718276,0.054884488627,-0.942005366432,0.726811617299,-0.431988653462,1.585808990796,-0.009143580966,-0.425561952137,0.470131473369,0.215501663655,-0.694147086746,-0.3729770542,-0.389453061758,-1.489101625648,-1.23978941042,-0.852347130073,-0.213496226451,0.511049446422,-0.035289263462,2.079407936092,-0.984109141484,-0.182861445464,-0.400464622583,-1.151545394655,0.047638899389,-2.339950016951,-0.092703597011,-2.344886094958,-0.805220819919,0.127211652103,-0.340069988249,-0.129952456583,0.354037246366,1.17713200216,0.508147879275,-0.319237595293,1.126868280269,-0.028631156603,1.304509616971,0.805409655071,0.150374454982,0.438606567419,0.346790750579,-0.178470742879,-1.320843874813,1.057758202803,-0.824163529381,-0.160859615896,-0.417957229828,0.673811258783,0.484916388935,0.759362242818,-0.695443003669,0.398604948166,0.838149337954,-0.722890689281,-1.164954889084,-0.090399021604,-0.585308653109,-1.149757660436,-1.173143372207,0.184911859774,-0.591768640835,0.503632893555,-1.428478534347,-0.950771277002,1.282871527729,-0.061453895951,-1.732896535999,-0.322201666665,1.355186612138,1.762169323471,0.220675815838,-0.279642210565,0.535612041473,0.778559838877,-0.47350357616,1.266330067379,-0.361903654114,2.136297555052,1.508916985481,0.511260603699,-0.164023064246,-0.605175898972],[-1.089051524964,0.017986198989,0.023152161494,-0.537015007034,0.590380970012,0.386822073435,-0.614102341055,-0.597739160619,0.533162199488,-1.251126094652,1.66571643458,1.321422117726,0.612241854897,0.041300403253,1.541575144484,0.022363473579,-0.026443118707,0.663132071338,-1.292224589685,-0.159711973723,-0.681954210849,-1.083189852947,1.653644183955,0.328473738827,-0.287792819593,1.830806326322,-2.254076289783,1.057529734288,1.696097056892,1.365225775151,-0.897976266918,-0.168954936401,1.144479792074,0.224196705233,-0.635875910165,-0.602573903465,0.253162396724,-0.89288753322,-1.208736614794,-0.760542748757,-0.226817619441,1.398813057877,-0.829417083147,0.449912386318,-0.644992322682,-0.515964678822,1.916570874544,-1.25720351071,-1.966784888956,0.244941695987,0.831508330922,-0.645735741428,0.337978059676,-0.288583370712,0.215779138923,1.582733374919,-0.748345795715,0.630397679671,1.003911429087,0.291628956092,1.844204258939,0.507616422096,0.357034054844,-0.702444088134]],"biases":[[-0.52524171375,0.383991555024,-0.106982813546,0.350301691401,1.322188212314,-1.96217445124,-1.113661372715,-0.083722168153,0.152670561686,-0.198200539312,-0.570214907252,0.194645408911,-1.307433732556,-0.189981617215,0.801924568136,1.655416832983],[-1.547458621183,-1.179534375937,-0.903341850966,0.578155764741]],"vocab":[],"labels":[],"meta":{"trained_by":"evolve","seed":42,"loss":-3.17935,"epochs":500}}