{"tinybrain":1,"topology":[13,16,4],"activations":["tanh","tanh"],"weights":[[0.035303305363,0.593507431232,-0.965171631156,-0.05173292791,0.111416540186,0.086807174286,-0.285859012137,-0.15557264714,0.000544897434,0.004955651009,0.370434510466,-0.096405110355,-0.269185456426,0.051181101994,0.376605823357,-0.355237529708,0.212990529355,0.27751088916,0.253170283088,-0.458435674514,-0.011776743193,-0.282642491177,-0.097965097535,0.099388590838,-0.041562589061,-0.452005820787,1.428849869767,-0.662778480818,-0.072228837957,0.295919771595,-0.125587532662,-0.145933169298,-0.082084505462,0.06852315971,-0.154107559168,0.054972545918,-0.27521811901,0.110876487001,0.252411290801,0.521766646966,0.424536796847,-0.089672310973,0.003578102994,0.003284029176,0.132778515695,-0.026634872872,-0.046019253687,-0.128385093758,-0.149301737239,0.348588826742,-0.034798786764,0.170543716475,0.086173811357,-0.382389148725,-0.57278276868,-0.03245133637,0.264616105155,0.220854571109,-0.495007994025,-0.380099513308,-0.003216852166,0.043811231944,0.310961066945,-0.21567027921,0.239087374892,-0.708544614137,0.118792467104,0.030046796553,0.047422718708,0.049318621347,-0.086669606653,0.020909667455,-0.223009730221,-0.446632281036,-0.341739021965,0.118902673087,0.303200976843,0.176548786129,-3.474651321161,0.194620265457,0.202719525241,0.164854526266,0.387371287137,-0.281524472063,0.001752760251,0.103427263341,-0.05266222552,0.294003633756,-0.080304786552,-0.008788060049,-0.202847995015,0.366179453554,0.155936955575,-0.425369783785,-0.021382949231,0.102947503876,-0.566088424248,-0.418447845098,0.071416226494,0.125619111842,0.304298078335,-0.00598842973,-0.524403224397,0.220967622159,0.121271009214,0.321044527929,-0.940163725007,0.330227721508,-0.108325165678,-0.188007003676,-0.01704982214,0.117510289122,0.211468618635,-0.255110458243,-0.042171008701,0.18575725511,-0.173144571389,-0.470576486001,0.695891268578,0.175707109727,0.040552225869,0.06300029217,0.023191370632,0.473460780823,-0.06848273965,0.171201320448,0.031743022112,-0.514452276427,-0.550142747905,-0.289404608819,0.858165944536,0.18575076094,0.341276642796,0.093571240411,0.154360164287,0.014636535022,0.101184476889,0.140260559407,0.245084190409,-0.171395126615,-0.095982574308,-0.009150272977,-0.094173256598,0.29181635775,0.133904422607,-0.032720162102,-0.210823419034,0.183169318854,-0.316990408662,-0.031957233907,0.492111360811,0.05057553891,-0.358324481039,0.130075977047,0.161316060804,0.049505462496,0.218371372386,0.496321815095,0.021061813084,0.094232219236,-0.242787853972,0.072167211623,0.115729647725,-0.028720076325,0.050103538718,-0.000093727606,0.354344398081,0.305086590685,0.072043799195,-1.237171624995,-2.88638489404,-0.223443948235,-0.062126931895,0.431626656668,-0.594669196025,0.235627663135,0.172093923945,0.074262954441,0.241068183439,0.056119667359,-0.241100259663,0.396666823783,-0.117281994487,0.526809511769,-0.368938708493,-0.255499555086,-0.116953818587,0.119628097858,0.130141536165,-0.588063065458,-0.310638397123,0.398448128409,0.028714639184,-0.516491047593,0.588079912069,-0.018468036139,0.373107247963,-0.268502894235,-0.50417551393,-0.157603549763,-0.297307491437,0.424052262998,-0.135453800558,0.09756250114,-0.184298023168,-0.028594230867,0.152145589901,-0.023756433202],[-0.131978732334,-0.067217898721,0.03263870925,-0.027980918191,-0.059092836264,-0.283675256604,0.016636534656,0.070576657789,-0.166041014506,-0.043420049053,0.446497977015,0.042118480418,0.097393534493,-0.191091196933,-0.006795039009,-0.01991447013,0.325000701732,-0.060228753379,0.025199027899,0.722847751053,0.5509872498,-0.132489115726,-0.00906537581,-0.172083963124,0.079359543136,-0.533146595205,-0.168845874867,-0.030604294198,0.234140208243,0.142238314095,-0.034803703467,0.333239141562,0.32055632221,0.828900873017,-0.81833629647,0.613681496188,-0.156234727405,-0.090370557189,2.562512654453,-0.002571660505,0.18835408351,0.044973837343,-0.344139663144,-0.206878369366,0.817323363038,-2.433637984237,-0.03414788127,0.189165651547,-0.202022464474,-0.100666910611,-0.382538007021,-0.025780175023,-0.249705896142,-0.227903147849,0.055127325437,-0.055678261081,0.050231889716,-0.142315350036,0.185572025485,-0.200731613747,-0.029938098513,0.130162138496,-0.196156722078,-0.036951860433]],"biases":[[0.558663280673,0.07269736941,-0.064040796156,-0.705456157667,-0.112704999084,-0.129521890446,0.611203255356,-0.177619196602,-0.64761923039,-0.692235009872,-0.171488990544,0.297843613364,0.239727121193,0.145480637779,-0.166137176348,-0.008251930642],[0.027873489562,1.62302381222,0.560623439683,-0.053082928642]],"vocab":[],"labels":[],"meta":{"trained_by":"evolve","seed":42,"loss":-11.6444,"epochs":1}}