{"tinybrain":1,"topology":[11,12,3],"activations":["tanh","tanh"],"weights":[[1.233951963197,0.942739104406,-0.013569089148,-1.080462261513,-0.227338038514,-0.197855555009,0.144728491104,0.969200234566,0.460916073276,1.004924284623,-0.146844846591,-1.463626350655,-0.149927881476,0.596992072206,0.234570289512,0.429692497933,0.408988818135,-1.544438387358,0.623787978582,0.230669609309,0.030013201213,0.568718149335,-0.390123973736,-0.383569899916,0.417241077343,-0.06891293927,1.130667847479,0.823952545959,0.986510384845,0.974781986128,-1.250539361383,-0.317777258352,-0.802531050054,-0.191340996484,-1.471072174106,-1.800834976626,1.16228572345,0.67104271167,-0.779476328837,0.38647278535,0.464039468376,-0.748022122634,0.667507528545,0.224691266648,0.396415615499,1.244600951995,0.427701110871,-0.200254431414,0.852359887051,-0.861476575006,1.013272973668,0.090356485867,2.514164838714,0.398634514934,-0.46742993289,0.08257519276,0.949499292485,-0.074140412977,0.292288190332,-1.266104901217,-0.044335875937,0.527022363863,-0.749853973603,-0.011166877188,-0.514757225879,0.060878733271,0.384398690976,0.440221757251,-0.360166003117,0.062268841668,0.284954006916,-0.917935115596,-0.181711287462,0.536241448688,0.49148074274,0.741857142533,-0.898474497487,0.325376908912,1.975131831237,-0.357785390181,-0.635603715054,-0.250622238149,1.144584514408,1.597263033664,0.882187716701,0.181808834212,0.173169500205,-0.892141984376,-0.883274750241,-0.009853779576,0.467826218935,0.187844222057,1.548630566149,0.287081701419,0.036843270174,1.909953355445,-0.613287336874,-1.012357817573,0.453976807419,-1.219788930481,0.036245175352,-0.498684001993,-1.003063412617,-0.531227819333,-0.358569140317,-0.365423318704,-0.497697211754,0.581740088962,0.836241924058,0.104217223569,1.394145299724,-0.902708194476,0.715831342789,-0.47785540555,0.598481061565,0.888462929469,1.386771203827,-1.02205911324,-0.508213191483,0.292372584409,0.725019310403,1.112228972796,-0.261135862098,-0.93350238152,0.774330744345,-0.741221477832,-0.009630849613,-1.36632846718,0.849601227417,0.321171969511,1.372921228676,-0.022533099154],[-0.460952994489,0.274082272115,1.533586200738,0.124325270659,-1.10848826324,-0.774551870266,-1.240470645526,-0.364502426313,-0.301062109019,-0.351705106907,0.340229952959,0.194058112704,-1.728303312733,0.330640485455,-0.361966348468,-0.124494407314,-1.403514953285,-0.090496173194,1.5442087932,-0.127563170845,0.412735982944,-0.952439973807,-1.50787393521,-0.01096104838,0.72351323663,-1.631586645535,0.791039740732,-0.113200262824,-1.104622808357,1.389848028189,-0.357945215659,-1.185676152252,0.714548056649,-0.581338391351,-0.189143986972,0.874326371739]],"biases":[[0.634985550556,0.622565959498,1.101705086558,0.158798935455,0.040636633961,0.190191957187,-0.670713828188,-0.17545670761,-0.549792654603,-0.330739815804,1.321296532998,0.928197863245],[-0.14125147841,-0.566483585311,-0.456364403365]],"vocab":[],"labels":[],"meta":{"trained_by":"evolve","seed":42,"loss":-11.4437,"epochs":264}}