{"tinybrain":1,"topology":[13,16,4],"activations":["tanh","tanh"],"weights":[[0.035303305363,0.593507431232,-0.985002771365,-0.008765312902,0.111423491159,0.032480273058,-0.233868945951,-0.112344935586,0.000544897434,0.028820799073,0.370434510466,-0.105616225517,-0.269185456426,0.108288057575,0.376605823357,-0.344698647658,0.212990529355,0.24032001918,0.241272589536,-0.458435674514,-0.011776743193,-0.28947789452,-0.097965097535,0.099388590838,-0.041562589061,-0.43759613545,1.428849869767,-0.663026211375,-0.072228837957,0.295919771595,-0.125587532662,-0.154027457077,-0.132900854193,0.06852315971,-0.223605263837,0.044010504604,-0.27521811901,0.112412687011,0.252411290801,0.493993234962,0.469482302232,-0.066582796345,0.061038961219,0.039755253089,0.190385386114,-0.06219319253,-0.046019253687,-0.128385093758,-0.149301737239,0.393437744439,-0.034798786764,0.19587882709,0.114675570374,-0.382389148725,-0.57278276868,-0.03245133637,0.264616105155,0.241326841415,-0.515028710085,-0.380099513308,-0.003216852166,0.070389826337,0.310549107049,-0.21567027921,0.233510382603,-0.708544614137,0.061149349759,0.030046796553,0.047422718708,0.07395562258,-0.086669606653,0.057402482257,-0.223009730221,-0.446632281036,-0.341739021965,0.118902673087,0.331903758681,0.183151031468,-3.452370909049,0.194620265457,0.202719525241,0.201607689043,0.472223700963,-0.281524472063,0.041247236895,0.103427263341,-0.05266222552,0.392019372136,-0.080304786552,-0.008788060049,-0.247748478851,0.332134236622,0.155936955575,-0.455090176892,-0.021382949231,0.102947503876,-0.566088424248,-0.47042323798,0.071416226494,0.125619111842,0.304298078335,-0.061190618629,-0.487872605005,0.220967622159,0.135993514777,0.333029569741,-0.940163725007,0.343490182742,-0.108325165678,-0.188007003676,-0.01704982214,0.15788225514,0.211468618635,-0.262367202843,-0.042171008701,0.205316928833,-0.167985083513,-0.436744355125,0.732060821202,0.175707109727,0.008347303333,0.036646689432,0.023191370632,0.453290939474,-0.119146160613,0.161573423393,-0.001901600449,-0.514452276427,-0.550142747905,-0.289404608819,0.858165944536,0.18575076094,0.341276642796,0.050363844411,0.162104151322,0.010951174944,0.044368908868,0.140260559407,0.245084190409,-0.171395126615,-0.095982574308,-0.068407567456,-0.098131701903,0.29181635775,0.133904422607,-0.069269812354,-0.209897925383,0.19338275932,-0.295361213541,-0.031957233907,0.492111360811,0.035887308066,-0.358324481039,0.073327084104,0.126868578373,0.017327795506,0.218371372386,0.452195630687,0.021061813084,0.094232219236,-0.227790146779,0.035738080789,0.092432328339,-0.028720076325,0.050103538718,-0.000093727606,0.354344398081,0.245394017101,0.12427384251,-1.200767107173,-2.914723100696,-0.223443948235,-0.062126931895,0.431626656668,-0.537997936661,0.235627663135,0.165635031669,0.115877626536,0.241068183439,0.03167365673,-0.240931196201,0.396666823783,-0.117281994487,0.526809511769,-0.390091121571,-0.294309340826,-0.146025061121,0.119628097858,0.130141536165,-0.588410985155,-0.321893961902,0.398448128409,0.033472913043,-0.475471301332,0.588079912069,-0.004943833354,0.373107247963,-0.279324460049,-0.564246560925,-0.198444328924,-0.266373353348,0.469875976309,-0.078778320514,0.09756250114,-0.220284457751,-0.028594230867,0.152145589901,-0.035112336403],[-0.131978732334,-0.017848845947,0.018497575341,-0.104959892076,-0.059092836264,-0.283675256604,0.047238257389,0.069845394265,-0.152966640161,-0.043420049053,0.392286913661,0.011724075342,0.133943633764,-0.145000679262,-0.019315132458,-0.01991447013,0.325000701732,-0.060228753379,0.068931217036,0.722847751053,0.5509872498,-0.106716261727,-0.06840326715,-0.172083963124,0.079359543136,-0.533146595205,-0.168845874867,-0.030604294198,0.234140208243,0.110422933915,-0.034803703467,0.333239141562,0.296351110528,0.842750702459,-0.81833629647,0.60104166485,-0.139725375434,-0.090370557189,2.562512654453,-0.002571660505,0.179432444583,0.046534169551,-0.35720358587,-0.236701587498,0.875587355388,-2.433637984237,-0.03414788127,0.189165651547,-0.202022464474,-0.100666910611,-0.413204763265,-0.074803605775,-0.311792439984,-0.246754325951,0.036298366699,-0.051295227369,0.050231889716,-0.118893952024,0.185572025485,-0.160906916158,-0.016198779575,0.083654476973,-0.160460446017,-0.036951860433]],"biases":[[0.558663280673,0.07269736941,-0.086864368977,-0.726985621551,-0.112704999084,-0.129521890446,0.611203255356,-0.177619196602,-0.62863735263,-0.692235009872,-0.176737947581,0.297843613364,0.239727121193,0.135801348622,-0.166137176348,-0.008251930642],[0.06708199601,1.580255019699,0.560623439683,-0.021411571742]],"vocab":[],"labels":[],"meta":{"trained_by":"evolve","seed":42,"loss":-13,"epochs":250}}