{"tinybrain":1,"topology":[13,16,4],"activations":["tanh","tanh"],"weights":[[-0.104232431615,0.227931519586,0.143973053281,-0.363609303996,-0.042998333447,0.241119687782,-0.274181422815,0.857528300181,-0.234326971126,0.14884012481,0.246111456429,-0.108294936227,-0.167112271816,-0.076058358237,0.123142665021,0.456392622534,-0.321416537784,0.072461845259,0.009571157028,0.130281934479,-0.544912053041,-0.041992389591,-0.073518827544,1.117507499306,-0.246301548923,-0.211700824483,0.144013801863,-0.381185657104,0.83288404614,-0.137506491631,0.602517683791,0.494635444705,0.227564653058,-0.353818401996,-0.15673834721,0.808102928618,0.532059452038,0.112122825949,-0.457376852552,0.457679197335,0.907206140887,0.098605623735,0.15480370777,-0.084146240625,-0.074081464713,0.292102804044,-0.655729185901,-0.02046355869,0.379337723415,0.613999246897,-0.089296197555,-0.085496264109,0.122277876581,-0.131860774953,-0.388175472845,-0.174694442275,-0.054635280333,0.608901373176,-0.389493212692,-0.341196865725,-0.148484392588,0.237256640245,-0.069771586907,-0.210477231632,-0.235480609952,-1.110788314416,-0.645776341421,-0.610079226716,0.100663790158,0.198490483486,0.146910976598,0.334031400506,0.154010162623,-0.226232613532,0.526677398555,0.494976996001,-0.034113568374,0.162015972562,-0.974652217804,0.781999674082,0.047320624478,0.239532249919,0.003444403806,0.3088855119,0.477659298479,-0.323285815249,0.144870996751,0.210265113046,-0.153121839542,0.100624211463,0.024211376371,1.688166389324,0.130639136398,0.43562504313,0.332523136217,0.238610603369,0.202108497015,-0.145393758936,-0.387862059125,0.657444464219,0.086922474624,-0.079496627054,-0.385282137282,0.181853223857,-0.600037612207,-0.250483363124,-0.13598440427,0.200895020879,0.081492800747,-0.046819757727,-0.300209488646,0.174899007015,0.556037819846,0.277616439617,0.318315864454,-1.174199632325,-0.213319722852,-0.286722441338,0.407571672736,0.118331119265,-0.440738698384,-0.424676904938,-0.085996875603,0.297106143313,-0.329634442464,0.390398840663,-0.160263534374,-0.089178960303,-0.127818686948,-0.079419197819,0.493545948539,-0.414367704902,-0.07909682439,0.204873650464,0.380836633512,0.527722738479,0.044426534545,0.232220970936,0.508798151042,0.211834938611,-0.203652248409,0.191893158638,-0.21877801877,0.238484724118,0.115281587478,-0.310551488815,0.389959839121,-0.025893360233,0.158154534448,-0.26729986129,-0.612613493143,-0.127665634999,-0.044082994579,0.416514755432,0.403712461107,-0.034746088791,-0.615722023583,0.284708898074,-0.482093246352,-0.176580270453,-0.893651340276,-0.013198348295,-0.047428298092,-0.75129402381,-0.043450477137,-0.11301079693,0.546465673403,-0.415165992826,-0.166173963395,-0.867841514614,0.098329855894,-0.126769776166,0.12350844861,0.039933751774,0.290214118051,0.003564540254,0.000279610726,0.146287931293,-0.289409115239,0.317872657525,-0.294701960603,0.351589633282,-0.016928273451,0.57292795589,-0.105924770149,-0.151376910623,0.053678647098,-0.091104185056,0.370927609306,0.525510476789,-0.520009148689,-0.391193397628,0.333180774106,0.073102439936,-0.421865874308,0.212370722392,0.636459732308,-0.08445531935,0.515246424944,-0.267869953713,-0.161064912776,0.015277428021,-0.713168493703,0.016950365711,-0.152123413708,-0.016632635081,0.193975055318,-0.313625124197],[0.267934957548,-0.250942604909,-0.206347628227,0.213562745156,-0.023110166581,-0.094214180049,-0.124326947828,-0.800865131642,-0.042292679575,-0.041922680566,0.461220998299,-0.304909169378,-0.35503945723,-0.066368568998,0.080526215687,-0.10480553321,0.28981021783,-0.123783474139,0.134609445487,-0.096798341834,-0.113202141546,-0.277640261652,-0.26003618111,1.763003499912,0.166989216958,0.056996429305,0.177801958899,0.036278924564,-0.053813917383,0.169940638749,-0.015575806066,0.016262805029,-0.009240262313,0.434213845852,0.219060849542,0.667801192104,0.28119082693,-0.137470956682,0.513594397553,-0.054706076636,0.454831839243,-0.060207871426,0.59950957767,-0.227364242656,-0.266912248076,-0.931746438567,-0.109329590998,-0.256472919128,-0.722653946126,-0.260252141405,0.454138148316,-0.167416260195,-0.175648050275,0.064015944371,0.435320276112,0.087396381416,0.378237326982,-0.056340007093,-0.234418238135,0.516999381241,0.317052542182,0.563090868279,-0.543849487864,-0.104072212382]],"biases":[[0.75221948116,0.011935294118,-0.036068625821,0.312539811894,0.152798221839,-0.640506072165,0.044416646031,-2.408520829479,-0.460939541922,-0.510812327292,0.469165082364,0.311204338129,-0.003771456704,-0.113364395975,0.124121228908,0.029637680555],[-0.094854976972,1.216466956804,-0.485024269395,-0.323600814936]],"vocab":[],"labels":[],"meta":{"trained_by":"evolve","seed":42,"loss":-9.7142,"epochs":200}}