{"tinybrain":1,"topology":[13,16,4],"activations":["tanh","tanh"],"weights":[[0.003005474472,0.164939758624,0.055571978411,-0.516383846088,-0.040340881253,0.579642085401,-0.332028429647,1.13109983528,-0.235330416099,0.130535096805,0.334768293983,-0.216109738889,-0.174321143657,-0.099437566818,0.156236670263,0.463569619947,-0.193831945607,-0.007971087562,-0.001741027278,0.423429564786,-0.68449704303,-0.113415851871,-0.156392716208,1.313159013723,-0.230221936918,-0.073566086929,0.117632880775,-0.573600381876,1.147770731623,-0.211349890239,0.664403873796,0.541794043296,0.381025213725,-0.346453730469,-0.159125082367,0.831105953902,0.521136915523,0.227764403978,-0.667726437062,0.434215044008,0.926562393937,0.087399609694,0.418133274112,0.018061166568,-0.038207991791,0.042090802881,-0.896304783598,-0.039080582538,0.4721296368,0.783504486822,-0.219421234549,-0.087206076398,-0.010184719438,-0.040207012492,-0.480282317912,-0.255853861359,0.14946152001,0.742185923887,-0.511189275069,-0.202521779972,-0.252323682732,0.195421879387,-0.037060407212,-0.300683273634,-0.199639849065,-1.006701530001,-0.676815138481,-0.647516253062,0.143427477117,0.238087094402,0.07148567745,0.639403872011,0.096047692095,-0.09142632606,0.257959271263,0.564289183858,0.004064546698,0.000930638501,-0.896894156841,0.867514355689,0.158746804581,0.239532249919,-0.261398544621,0.270751775302,0.415364449879,-0.355892341147,0.300003693498,0.218046167455,-0.236554633803,-0.042597105566,-0.063659279312,1.733717227166,0.061770346851,0.321683906902,0.329624320271,0.248425478439,0.277312066176,-0.282710249504,-0.071533086726,0.916739351096,0.056918766363,-0.202398063351,-0.414210825473,0.137562367625,-0.55027713229,-0.284486817689,-0.239633236037,0.142839713862,-0.014563225988,-0.199098863459,-0.265709466179,0.148004877553,0.731948740495,0.412036352175,0.283506913343,-1.123529589951,-0.107410093967,-0.398915172643,0.664945130375,0.123655936263,-0.281713414165,-0.739518414992,-0.228075383384,0.306550669351,-0.388711081426,0.471415759625,-0.087293795014,-0.334974371933,0.065939167597,-0.197739653081,0.813195963797,-0.652489891879,-0.300208024121,0.163679207422,0.50002011779,0.601040972055,-0.017622053562,0.446884689095,0.525286857845,0.257569817039,-0.183582663553,-0.054518116423,-0.096861437539,0.062444866907,0.073623853742,-0.491762306746,0.727708344071,-0.110089559968,0.126899672347,-0.413596596121,-0.733656038745,-0.129366723086,-0.018060422557,0.372964757391,0.371130153858,0.141446966722,-0.713428485685,0.455782647326,-0.600746175274,-0.060253138762,-0.934422141428,0.007908835591,-0.110504012889,-0.849390915199,-0.025641437188,-0.233192760933,0.352355981474,-0.335647190227,-0.142631740626,-0.99010772158,0.045475847772,-0.066924522517,0.237029327017,-0.035313780711,0.227132483544,0.064279055763,0.072659356573,0.215003357688,-0.215866265741,0.237684209058,-0.353843112182,0.409436952596,-0.020840833601,0.858798591948,0.014856625184,-0.235020857193,-0.078188848245,-0.279603494085,0.366699595778,0.446353231034,-0.649103398508,-0.184463488401,0.417246121571,0.089642952289,-0.500106005121,0.221333577703,0.848058779059,-0.091380286761,0.428182270708,-0.451769456083,-0.091609608421,-0.033673512647,-0.747945869957,0.126539211293,-0.325279168174,-0.150575325229,0.052419888621,-0.094513087341],[0.103175220466,-0.202883958975,-0.179291396166,0.101194081247,-0.106718762833,-0.145790020184,-0.076030222889,-0.685265328832,-0.056069353219,-0.145687050828,0.432303464232,-0.145364205969,-0.393473249965,-0.066368568998,0.174688799617,-0.064434160347,0.142570502583,-0.11712751137,0.134609445487,0.000814994222,-0.06434114723,-0.280265013015,-0.42080997253,1.797165100622,0.180525619654,0.103115742901,0.102728394212,0.087817272683,-0.083905312314,0.152484281034,0.024096714756,0.016262805029,0.006256927752,0.419991016107,0.231372124526,0.833332099638,0.336746514573,-0.210718693329,0.433291210624,-0.265026188936,0.526115912775,-0.081733521264,0.664871116002,0.085035575396,-0.359881365908,-0.67985729078,-0.053299053076,-0.456947969819,-0.694324821088,-0.347165122587,0.568867185477,0.124429406339,0.07341285551,0.135397175331,0.600189906614,0.135191157726,0.40997550685,-0.207198692234,-0.175515240507,0.541958948339,0.458658364562,0.496113584657,-0.390193891255,-0.116306437694]],"biases":[[0.535158784696,0.277615450951,-0.123679558674,0.52288715466,0.439344098354,-0.817101757514,0.045440026504,-2.435090620318,-0.462544169349,-0.458580294822,0.296553505211,0.255314739348,-0.146992421916,-0.215264411031,0.107348794981,0.065701423908],[-0.092930046118,1.214589470177,-0.450995656003,-0.460873971665]],"vocab":[],"labels":[],"meta":{"trained_by":"evolve","seed":42,"loss":-16.4966,"epochs":170}}