{"tinybrain":1,"topology":[11,14,3],"activations":["tanh","tanh"],"weights":[[-0.309085357877,-0.050295602635,-0.153755205018,0.063527101794,0.035468501311,0.096082154874,-0.068944150351,-0.105432011842,-0.091782902514,-0.245962145116,0.02446598277,-0.516175445984,-1.439919353094,-0.000675308935,-0.246852542537,-0.004775184798,0.108239750269,-0.021942544623,-0.004640309981,0.037701284028,-0.001584056474,0.086825334204,0.356172744916,-0.688778863552,0.121644928141,0.019126795803,0.021919868537,-0.055047862901,-0.109020809899,-0.194046665074,-0.106201417697,0.08075311434,0.081766507799,0.301423773295,0.152721575199,-0.07361251284,0.3242777261,0.113192694616,0.075731013597,-0.036294897604,0.044600159286,0.022852937044,-0.066170890616,-0.015076230975,0.304850050778,-0.062639084362,-0.173928404101,-0.236889756078,0.00060884795,0.055278119912,-0.037306467274,-0.002587695145,-0.031831471086,0.026578652728,0.047666074013,-0.109886066421,0.007640122338,0.091370581258,-0.363277299489,0.086956659893,-0.043123732551,0.219443267462,-0.164546321586,-0.16470561462,-0.148295796977,-0.134757698502,-0.240109708164,-0.227056524206,-0.189476329597,-0.026517052884,-0.173875403929,-0.102568110086,-0.043961795986,-0.091052873787,0.079968272044,0.032191189618,-0.001946423424,0.070267795588,-0.280856733641,0.254238778845,0.02178856116,0.121120860227,0.113918430479,0.056219204246,-0.230388030162,0.013259320124,0.115288421625,0.095485748628,0.155856264819,0.107522312116,0.199492805146,0.056231726132,0.086554425639,0.034511120556,-0.044387289494,-0.196012755822,0.089211345029,-0.160716728712,0.013811919046,0.123910601763,0.097248642245,0.019307420975,0.173159255285,0.144847567914,0.091849572354,0.139286598387,-0.246996016834,0.121934066089,-0.189051759402,-0.006248458078,-0.248697336706,-0.623339454923,-0.015378762202,-0.059823670929,0.044469664291,0.054214299733,0.061408529891,0.126421997543,0.042380993788,-0.122964082874,-0.021514120046,0.028211687783,-0.173844078145,-0.01597221106,-0.230055888911,-0.031061637642,0.060875004071,0.015184165123,-0.184117035488,0.090584668626,0.068377833685,-0.013033679673,0.250972596214,-0.293297139807,-0.018746775923,-0.110494245841,-0.000049610582,0.033792710563,0.041851040353,-0.015714793061,-0.034266391885,-0.032719655632,-0.007475815425,-0.053641169682,0.324244147107,-0.031148451551,-0.128024875217,0.039143784129,0.051176280498,-0.267393788122,-0.093638122546,-0.152889023133,-0.043466238711,-0.013896969808],[-0.130938537357,0.021984796244,-0.008992618418,0.239084037316,0.274359315709,0.08176546679,-0.109155905428,-0.018730990653,0.011943203542,-0.020077005763,-0.006166322267,-0.092843914765,0.215866880889,-0.000717575276,-0.204788969869,-1.027775647612,-0.374889169858,0.174314637897,0.235126614186,-0.137744875226,-0.204437483924,0.042113124215,-0.01148837106,0.097306680605,-0.022692677673,-0.395557171115,0.136564475622,0.153337598033,0.158055747527,-0.016551275522,-0.447831675984,-0.20594552013,-0.211515289331,0.187674152606,0.241289038183,-0.07915897792,-0.104643837183,0.101389148371,0.491421728725,-0.103522323307,-0.55203634955,-0.153852377377]],"biases":[[0.097359328864,-1.583617041351,0.037778492033,0.178599621296,0.006205673372,0.113617692539,0.031138506093,-0.117528228447,0.289466992781,-0.215164401095,-0.016521513831,0.261684074466,-0.073903401829,0.073774945879],[-0.101091762087,-1.517754985774,-0.002100996167]],"vocab":[],"labels":[],"meta":{"trained_by":"evolve","seed":42,"loss":-19.1228,"epochs":1}}